<?xml version="1.0"?>
<opencv_storage>
<stage11>
  <maxWeakCount>9</maxWeakCount>
  <stageThreshold>-1.4018396139144897e+00</stageThreshold>
  <weakClassifiers>
    <_>
      <internalNodes>
        0 -1 187914 1.4133221702650189e-04</internalNodes>
      <leafValues>
        2.1923729777336121e-01 -7.8437536954879761e-01</leafValues></_>
    <_>
      <internalNodes>
        0 -1 188925 1.6749966016504914e-04</internalNodes>
      <leafValues>
        2.8122726082801819e-01 -6.6088354587554932e-01</leafValues></_>
    <_>
      <internalNodes>
        0 -1 122037 3.5873660817742348e-03</internalNodes>
      <leafValues>
        -3.9303854107856750e-01 4.4134151935577393e-01</leafValues></_>
    <_>
      <internalNodes>
        0 -1 61220 5.1883994601666927e-03</internalNodes>
      <leafValues>
        -2.4680364131927490e-01 6.2775993347167969e-01</leafValues></_>
    <_>
      <internalNodes>
        0 -1 190607 -8.1586011219769716e-05</internalNodes>
      <leafValues>
        -6.8588316440582275e-01 2.5038436055183411e-01</leafValues></_>
    <_>
      <internalNodes>
        0 -1 188796 9.7800639923661947e-04</internalNodes>
      <leafValues>
        -4.6952241659164429e-01 3.2235425710678101e-01</leafValues></_>
    <_>
      <internalNodes>
        0 -1 187326 -1.2613278813660145e-03</internalNodes>
      <leafValues>
        -9.5470380783081055e-01 1.4001299440860748e-01</leafValues></_>
    <_>
      <internalNodes>
        0 -1 173391 1.7346473177894950e-03</internalNodes>
      <leafValues>
        -3.4372168779373169e-01 4.7665956616401672e-01</leafValues></_>
    <_>
      <internalNodes>
        0 -1 102915 -2.6099449023604393e-02</internalNodes>
      <leafValues>
        4.1611897945404053e-01 -3.4253492951393127e-01</leafValues></_></weakClassifiers></stage11>
</opencv_storage>
