<?xml version="1.0"?>
<opencv_storage>
<stage16>
  <maxWeakCount>10</maxWeakCount>
  <stageThreshold>-1.1131365299224854e+00</stageThreshold>
  <weakClassifiers>
    <_>
      <internalNodes>
        0 -1 166353 -2.2872490808367729e-03</internalNodes>
      <leafValues>
        1.2945264577865601e-01 -7.3535120487213135e-01</leafValues></_>
    <_>
      <internalNodes>
        0 -1 13316 3.4057005541399121e-04</internalNodes>
      <leafValues>
        1.9843670725822449e-01 -6.5685111284255981e-01</leafValues></_>
    <_>
      <internalNodes>
        0 -1 12524 -3.7444122135639191e-02</internalNodes>
      <leafValues>
        4.4207662343978882e-01 -3.4715923666954041e-01</leafValues></_>
    <_>
      <internalNodes>
        0 -1 10034 -5.1484134048223495e-02</internalNodes>
      <leafValues>
        4.5156899094581604e-01 -3.9256471395492554e-01</leafValues></_>
    <_>
      <internalNodes>
        0 -1 115506 -8.1775169819593430e-03</internalNodes>
      <leafValues>
        4.1455283761024475e-01 -3.9734759926795959e-01</leafValues></_>
    <_>
      <internalNodes>
        0 -1 175281 4.1624167934060097e-03</internalNodes>
      <leafValues>
        -2.7289062738418579e-01 5.3049474954605103e-01</leafValues></_>
    <_>
      <internalNodes>
        0 -1 61746 4.0059443563222885e-03</internalNodes>
      <leafValues>
        3.7721291184425354e-01 -4.0925210714340210e-01</leafValues></_>
    <_>
      <internalNodes>
        0 -1 190674 -4.0726744919084013e-04</internalNodes>
      <leafValues>
        2.4561414122581482e-01 -6.7413812875747681e-01</leafValues></_>
    <_>
      <internalNodes>
        0 -1 185779 -3.7873558700084686e-02</internalNodes>
      <leafValues>
        -7.3785030841827393e-01 2.2843313217163086e-01</leafValues></_>
    <_>
      <internalNodes>
        0 -1 145083 -3.3897324465215206e-04</internalNodes>
      <leafValues>
        -5.5088090896606445e-01 2.3514601588249207e-01</leafValues></_></weakClassifiers></stage16>
</opencv_storage>
