<?xml version="1.0"?>
<opencv_storage>
<stage12>
  <maxWeakCount>10</maxWeakCount>
  <stageThreshold>-1.2276680469512939e+00</stageThreshold>
  <weakClassifiers>
    <_>
      <internalNodes>
        0 -1 146696 -9.0984757989645004e-03</internalNodes>
      <leafValues>
        2.3400081694126129e-01 -7.2625696659088135e-01</leafValues></_>
    <_>
      <internalNodes>
        0 -1 25921 1.6591491294093430e-04</internalNodes>
      <leafValues>
        2.3878774046897888e-01 -7.0899415016174316e-01</leafValues></_>
    <_>
      <internalNodes>
        0 -1 22699 -5.0188908353447914e-03</internalNodes>
      <leafValues>
        2.6652863621711731e-01 -6.3159191608428955e-01</leafValues></_>
    <_>
      <internalNodes>
        0 -1 18037 3.3387737348675728e-03</internalNodes>
      <leafValues>
        -3.4827235341072083e-01 4.7977426648139954e-01</leafValues></_>
    <_>
      <internalNodes>
        0 -1 68651 -4.9975146539509296e-03</internalNodes>
      <leafValues>
        6.6252332925796509e-01 -2.4717919528484344e-01</leafValues></_>
    <_>
      <internalNodes>
        0 -1 186560 2.6943499688059092e-04</internalNodes>
      <leafValues>
        2.5958782434463501e-01 -6.6780781745910645e-01</leafValues></_>
    <_>
      <internalNodes>
        0 -1 183395 9.7704282961785793e-04</internalNodes>
      <leafValues>
        -5.3857266902923584e-01 2.9558423161506653e-01</leafValues></_>
    <_>
      <internalNodes>
        0 -1 188731 -2.5844716583378613e-04</internalNodes>
      <leafValues>
        -7.4333280324935913e-01 1.9438467919826508e-01</leafValues></_>
    <_>
      <internalNodes>
        0 -1 14712 3.2884743995964527e-04</internalNodes>
      <leafValues>
        1.3788060843944550e-01 -8.6910730600357056e-01</leafValues></_>
    <_>
      <internalNodes>
        0 -1 101410 -8.6370930075645447e-02</internalNodes>
      <leafValues>
        7.6294034719467163e-01 -2.6164674758911133e-01</leafValues></_></weakClassifiers></stage12>
</opencv_storage>
