<?xml version="1.0"?>
<opencv_storage>
<stage7>
  <maxWeakCount>6</maxWeakCount>
  <stageThreshold>-1.0579329729080200e+00</stageThreshold>
  <weakClassifiers>
    <_>
      <internalNodes>
        0 -1 54278 1.1532786302268505e-02</internalNodes>
      <leafValues>
        -5.0378513336181641e-01 5.9130984544754028e-01</leafValues></_>
    <_>
      <internalNodes>
        0 -1 173629 1.8635115120559931e-03</internalNodes>
      <leafValues>
        -3.8798987865447998e-01 6.0378605127334595e-01</leafValues></_>
    <_>
      <internalNodes>
        0 -1 11 -5.5667500419076532e-05</internalNodes>
      <leafValues>
        -9.7168105840682983e-01 2.2751495242118835e-01</leafValues></_>
    <_>
      <internalNodes>
        0 -1 190090 8.0208182334899902e-03</internalNodes>
      <leafValues>
        -3.7755686044692993e-01 5.2742189168930054e-01</leafValues></_>
    <_>
      <internalNodes>
        0 -1 13969 2.4792132899165154e-02</internalNodes>
      <leafValues>
        -4.3272972106933594e-01 5.2547955513000488e-01</leafValues></_>
    <_>
      <internalNodes>
        0 -1 113847 -1.9703466445207596e-02</internalNodes>
      <leafValues>
        4.6835467219352722e-01 -4.8836511373519897e-01</leafValues></_></weakClassifiers></stage7>
</opencv_storage>
