<?xml version="1.0"?>
<opencv_storage>
<stage10>
  <maxWeakCount>8</maxWeakCount>
  <stageThreshold>-1.0029304027557373e+00</stageThreshold>
  <weakClassifiers>
    <_>
      <internalNodes>
        0 -1 5312 7.9170233220793307e-05</internalNodes>
      <leafValues>
        -8.2159197330474854e-01 9.9499501287937164e-02</leafValues></_>
    <_>
      <internalNodes>
        0 -1 92937 -1.0959430597722530e-02</internalNodes>
      <leafValues>
        2.8675034642219543e-01 -5.4231774806976318e-01</leafValues></_>
    <_>
      <internalNodes>
        0 -1 188812 1.3144750846549869e-04</internalNodes>
      <leafValues>
        -7.0875889062881470e-01 2.6329529285430908e-01</leafValues></_>
    <_>
      <internalNodes>
        0 -1 86179 -1.2824097275733948e-01</internalNodes>
      <leafValues>
        6.2464982271194458e-01 -2.8733074665069580e-01</leafValues></_>
    <_>
      <internalNodes>
        0 -1 97754 9.1442652046680450e-02</internalNodes>
      <leafValues>
        -3.5976964235305786e-01 5.5249112844467163e-01</leafValues></_>
    <_>
      <internalNodes>
        0 -1 14772 8.6987667600624263e-05</internalNodes>
      <leafValues>
        2.8385379910469055e-01 -5.9967064857482910e-01</leafValues></_>
    <_>
      <internalNodes>
        0 -1 182052 5.9478959883563221e-05</internalNodes>
      <leafValues>
        3.2462698221206665e-01 -4.7622725367546082e-01</leafValues></_>
    <_>
      <internalNodes>
        0 -1 82 -1.2182072168798186e-05</internalNodes>
      <leafValues>
        -7.9795682430267334e-01 1.5905244648456573e-01</leafValues></_></weakClassifiers></stage10>
</opencv_storage>
