<?xml version="1.0"?>
<opencv_storage>
<stage6>
  <maxWeakCount>6</maxWeakCount>
  <stageThreshold>-1.3085808753967285e+00</stageThreshold>
  <weakClassifiers>
    <_>
      <internalNodes>
        0 -1 23339 2.7997011784464121e-04</internalNodes>
      <leafValues>
        1.7863304913043976e-01 -7.6430481672286987e-01</leafValues></_>
    <_>
      <internalNodes>
        0 -1 10 -1.1380213436495978e-05</internalNodes>
      <leafValues>
        -9.5301830768585205e-01 1.8574008345603943e-01</leafValues></_>
    <_>
      <internalNodes>
        0 -1 127059 -1.5640521887689829e-03</internalNodes>
      <leafValues>
        5.0313419103622437e-01 -4.0499597787857056e-01</leafValues></_>
    <_>
      <internalNodes>
        0 -1 86 -5.5152060667751357e-05</internalNodes>
      <leafValues>
        -6.9075322151184082e-01 2.9163944721221924e-01</leafValues></_>
    <_>
      <internalNodes>
        0 -1 107485 -5.0773799419403076e-02</internalNodes>
      <leafValues>
        7.8106987476348877e-01 -2.9712352156639099e-01</leafValues></_>
    <_>
      <internalNodes>
        0 -1 80993 -9.5889449119567871e-02</internalNodes>
      <leafValues>
        5.5291306972503662e-01 -3.1953606009483337e-01</leafValues></_></weakClassifiers></stage6>
</opencv_storage>
