<?xml version="1.0"?>
<opencv_storage>
<stage13>
  <maxWeakCount>10</maxWeakCount>
  <stageThreshold>-1.3108043670654297e+00</stageThreshold>
  <weakClassifiers>
    <_>
      <internalNodes>
        0 -1 14772 8.1649122876115143e-05</internalNodes>
      <leafValues>
        1.8488508462905884e-01 -8.0419230461120605e-01</leafValues></_>
    <_>
      <internalNodes>
        0 -1 166569 -5.8382754214107990e-03</internalNodes>
      <leafValues>
        4.3344682455062866e-01 -4.8649343848228455e-01</leafValues></_>
    <_>
      <internalNodes>
        0 -1 21744 -1.2903395690955222e-04</internalNodes>
      <leafValues>
        2.9916846752166748e-01 -5.8814495801925659e-01</leafValues></_>
    <_>
      <internalNodes>
        0 -1 15897 9.3191294581629336e-05</internalNodes>
      <leafValues>
        3.3373883366584778e-01 -4.9889874458312988e-01</leafValues></_>
    <_>
      <internalNodes>
        0 -1 176433 -4.2395968921482563e-03</internalNodes>
      <leafValues>
        7.0604252815246582e-01 -2.2751338779926300e-01</leafValues></_>
    <_>
      <internalNodes>
        0 -1 2301 3.9731629192829132e-02</internalNodes>
      <leafValues>
        -1.8589566648006439e-01 8.1529378890991211e-01</leafValues></_>
    <_>
      <internalNodes>
        0 -1 103329 -1.6744742169976234e-03</internalNodes>
      <leafValues>
        3.0655434727668762e-01 -6.7597317695617676e-01</leafValues></_>
    <_>
      <internalNodes>
        0 -1 138243 -1.5813479200005531e-02</internalNodes>
      <leafValues>
        3.7554186582565308e-01 -4.1517317295074463e-01</leafValues></_>
    <_>
      <internalNodes>
        0 -1 15042 -3.0617304146289825e-02</internalNodes>
      <leafValues>
        4.1155073046684265e-01 -3.8764604926109314e-01</leafValues></_>
    <_>
      <internalNodes>
        0 -1 186105 1.4563475269824266e-03</internalNodes>
      <leafValues>
        2.7993479371070862e-01 -6.2985146045684814e-01</leafValues></_></weakClassifiers></stage13>
</opencv_storage>
